date,ip_total,ip_manuf,retail_vol,construction,exports_vol,imports_vol,unemp_rate,services_iaf,services_H,services_J,services_N,real_wage_bill,hicp,esi_sk,ind_conf_sk,cons_conf_sk,esi_de,esi_ea,bond_10y,eur_usd
2013-01,-8.38915792551618e-31,-1.0286564933234942e-30,-4.8048005185643294e-31,-1.129139821570464e-31,-8.121369386220256e-31,-1.1154938807329606e-30,4.627842643575176e-31,-3.4538354650793854e-31,-6.026698984750333e-31,-5.252698392485977e-32,-2.272435993661533e-31,-3.5676378368901736e-31,3.865985710706199e-33,-5.908557369051467e-31,-5.948794995869376e-31,-1.9646469426976999e-31,-4.422441316647948e-31,-4.919234221233913e-31,1.9317321324600627e-31,1.3081455044432734e-32
2013-02,-7.255989348155722e-33,-7.490578346667191e-33,-5.51144278275688e-33,-3.5628774283578715e-33,2.0822527001016763e-33,-1.6868502443604063e-33,-2.664739212350785e-32,6.526277167981817e-33,-1.1904120576852962e-32,-2.5118995705683353e-33,8.680021674102901e-34,1.6099478863061586e-31,-1.8789901242480436e-34,1.3366897783188297e-31,4.0283912680964027e-32,1.6791913028218586e-31,7.740950621594969e-31,6.084062732045467e-31,-7.127151908041806e-33,-4.736372462426102e-34
2013-03,-1.24808425230827e-31,-1.3374230121385707e-31,-9.277452674410149e-32,-4.4875428300752004e-32,-3.9487248647036173e-32,-8.84684191523073e-32,-1.7022979402587342e-31,2.2619751386872497e-32,-1.602535370223628e-31,-2.922129128829178e-32,-1.563673469847626e-32,1.1279211102904668e-30,-1.1144423891079198e-33,9.314221201046073e-31,2.616614115310465e-31,1.1777783685612944e-30,5.4333718205092375e-30,4.2693866635903975e-30,-3.8679923458993805e-32,-2.5120440065456805e-33
2013-04,-7.8546504696343595e-31,-8.56955132030061e-31,-5.775491928998993e-31,-2.3128332100137073e-31,-4.831745896201829e-31,-7.420373193155895e-31,-1.7343963913367554e-31,-1.369798291277381e-31,-8.698403048367122e-31,-1.4031830984389888e-31,-1.9366306165363672e-31,1.983641544003943e-30,-4.146824864740279e-34,1.599382914794383e-30,3.0282943463991743e-31,2.08161980298762e-30,9.632801475838367e-30,7.56141940722949e-30,1.8067596443113813e-32,1.750617403413873e-33
2013-05,-2.2459561342924116e-30,-2.473407290946751e-30,-1.641914682878185e-30,-5.841815552074664e-31,-1.73564399422567e-30,-2.4013119743715512e-30,8.587513168004405e-31,-8.131281097274135e-31,-2.277962732837824e-30,-3.3547096184412364e-31,-6.974770731248476e-31,-2.044958351910077e-30,8.770435436497471e-33,-1.8576667415350767e-30,-1.1617162205611377e-30,-2.090377664251206e-30,-9.513264240074946e-30,-7.509135602057437e-30,4.461950328748193e-31,3.149928831663028e-32
2013-06,-2.6938102785446193e-30,-2.9822897451646396e-30,-1.9628367355860885e-30,-6.481708207723147e-31,-2.3226712323605946e-30,-3.070364188647172e-30,1.951839380311112e-30,-1.2620611340484382e-30,-2.589802694302912e-30,-3.5761998751171497e-31,-9.343556326368557e-31,-7.704058390691038e-30,1.7294380925769524e-32,-6.604282880400958e-30,-2.773147014264772e-30,-7.980087135328692e-30,-3.662735419900885e-29,-2.882932664637849e-29,8.036439288841676e-31,5.580901082281511e-32
2013-07,5.4655301189129765e-31,5.6021751010824785e-31,4.168031027407667e-31,2.8178917188151233e-31,-2.184209326106183e-31,7.844535240817208e-32,2.242801737519731e-30,-5.648850712289481e-31,9.33063885570834e-31,2.0064320661802444e-31,-9.037671315128123e-32,-1.3468951072256146e-29,1.5884931291906245e-32,-1.1186986341879599e-29,-3.38700062211145e-30,-1.4047146581841035e-29,-6.475314321228338e-29,-5.089408715455778e-29,6.054644675738725e-31,4.028413178544344e-32
2013-08,9.446397292311178e-30,1.0393439550632307e-29,6.909798577986638e-30,2.489224893785925e-30,7.152355946487297e-30,9.983213942575911e-30,-3.04678335093908e-30,3.2441810359805615e-30,9.668303985252362e-30,1.438405522718765e-30,2.8736094192382033e-30,5.38197365436628e-30,-3.2734994948398547e-32,5.130687474161261e-30,4.040332250477927e-30,5.4371947798094864e-30,2.4554438826231473e-29,1.9431815025933871e-29,-1.7121034935381007e-30,-1.2143323677545164e-31
2013-09,1.566676911467107e-29,1.7301552818944454e-29,1.1433317413476141e-29,3.913577056127418e-30,1.2847803321376008e-29,1.7335286540397017e-29,-8.82446524151571e-30,6.553746753153541e-30,1.545223757282019e-29,2.2025239521084872e-30,5.1659621682675154e-30,3.040979582261038e-29,-8.200841779651306e-32,2.6412743277246556e-29,1.2345707653625065e-29,3.140777935646747e-29,1.4388967756179294e-28,1.1332522352733269e-28,-3.937876346804334e-30,-2.7515334001465395e-31
2013-10,7.356173951120112e-30,8.251784437168845e-30,5.315445628820283e-30,1.4087895773051088e-30,8.00038249457975e-30,9.693238865098893e-30,-1.1672701376599433e-29,5.419634119143598e-30,6.0924105033300146e-30,6.687115775347668e-31,3.22440022663463e-30,5.716916139414366e-29,-9.384213550578847e-32,4.814464613003121e-29,1.7066239556728899e-29,5.944729998213787e-29,2.7352427325355008e-28,2.151150176579104e-28,-4.041781671711661e-30,-2.764453977077947e-31
2013-11,-2.5429329015930077e-29,-2.794602029652382e-29,-1.861443557418632e-29,-6.81045642601947e-30,-1.8751057697681387e-29,-2.6477447789853883e-29,6.278005949526023e-30,-8.134699814453003e-30,-2.632386145506107e-29,-3.965510614054994e-30,-7.531546976996645e-30,-3.5290238964883516e-30,7.398234349433039e-32,-4.6789025025931585e-30,-7.996942117412175e-30,-3.215316943005599e-30,-1.3473796894849764e-29,-1.0941236361481975e-29,4.048631215789528e-30,2.892694085328415e-31
2013-12,-5.634606775964103e-29,-6.213646533415822e-29,-4.115719520723018e-29,-1.437395154721544e-29,-4.4837037242273327e-29,-6.126489694369418e-29,2.649361174203499e-29,-2.193937857126534e-29,-5.638451058666862e-29,-8.17598382529772e-30,-1.802323896966244e-29,-7.949804384084855e-29,2.5640646834755654e-31,-7.010066806710518e-29,-3.655297452044519e-29,-8.182703813209315e-29,-3.7405830214250987e-28,-2.948171324647406e-28,1.263550084516303e-29,8.87043740693242e-31
2014-01,-4.9368360135601336e-29,-5.472253170819241e-29,-3.5944256928886766e-29,-1.1653248434833023e-29,-4.360158120585944e-29,-5.708640702786425e-29,3.9730413092828393e-29,-2.4361206348932214e-29,-4.685058430867512e-29,-6.361748959978585e-30,-1.7543651838305836e-29,-1.6374647233346795e-28,3.460497582879516e-31,-1.3983213924230066e-28,-5.674924503921128e-29,-1.6975682906880274e-28,-7.795759171271638e-28,-6.134933019772247e-28,1.588130441264878e-29,1.1002317960263682e-30
2014-02,2.9037888671115583e-29,3.1758458149636296e-29,2.1319319046964992e-29,8.290230191598647e-30,1.9056125862081596e-29,2.8374793166116564e-29,1.844867628570077e-30,6.484836619185211e-30,3.145169972259379e-29,4.96575505001372e-30,7.644050665436995e-30,-4.7317177829611654e-29,-1.823472171844099e-32,-3.744711389876493e-29,-4.359604391251821e-30,-4.9841722905948095e-29,-2.3118473095195247e-28,-1.8133202679276595e-28,-1.9980245244618727e-30,-1.5403611427555228e-31
2014-03,1.3034346599145044e-28,1.4342921988469428e-28,9.53353674822114e-29,3.4285720384466576e-29,9.897041953116971e-29,1.3797214999206859e-28,-4.311396736910248e-29,4.509798118168187e-29,1.33239518183358e-28,1.9795315488656814e-29,3.976461107957658e-29,8.037846401000388e-29,-4.595763507679607e-31,7.589179166951387e-29,5.735657605969724e-29,8.139848443104155e-29,3.6818073154105327e-28,2.9121433495775924e-28,-2.3936703873960705e-29,-1.696562444360905e-30
2014-04,1.9378042738731002e-28,2.1357738050479634e-28,1.4159254076262184e-28,4.9825094883652295e-29,1.5240304272352923e-28,2.0927843285820345e-28,-8.424059392689275e-29,7.331347435985959e-29,1.9497443605492578e-28,2.845177343464993e-29,6.125468653252003e-29,2.342453998296533e-28,-8.312911638197906e-31,2.0845235859613988e-28,1.154212459107137e-28,2.4060303288718525e-28,1.0983934079913917e-27,8.660972835050597e-28,-4.145297410960551e-29,-2.9162096454210164e-30
2014-05,1.4926363570086127e-28,1.6492285806308109e-28,1.0889509404200486e-28,3.700494011483915e-29,1.2369711215515155e-28,1.6617946236232091e-28,-8.901347162099542e-29,6.397680830305254e-29,1.4645675296926746e-28,2.074459086429048e-29,4.9742207144438846e-29,3.1786278438421287e-28,-8.176279003103811e-31,2.750923035617128e-28,1.250153400228665e-28,3.2855804594683094e-28,1.5060072127817931e-27,1.1859050679893182e-27,-3.895621850881523e-29,-2.7180935425058025e-30
2014-06,-5.109069737529853e-29,-5.455353521025118e-29,-3.805788733981016e-29,-1.902061012050497e-29,-1.317790688824791e-29,-3.3857065870972085e-29,-8.111025865234848e-29,1.2814202293236022e-29,-6.736524258948955e-29,-1.2516435472701014e-29,-5.188746367445634e-30,5.268072851326413e-28,-5.401764472444072e-31,4.355226416988356e-28,1.2421404091172517e-28,5.499626146029857e-28,2.5367292308668327e-27,1.993387294126657e-27,-1.9161457403481724e-29,-1.2517748195042644e-30
2014-07,-5.051369601396752e-28,-5.528677189024595e-28,-3.7069911410561216e-28,-1.4286083345540063e-28,-3.3771132888181782e-28,-4.985087317576682e-28,-8.313193704936375e-30,-1.2020682848380664e-28,-5.434538911266858e-28,-8.522898311850866e-29,-1.3549706270478534e-28,6.876580259707624e-28,4.919752170327898e-31,5.385352500742642e-28,4.0246398132356413e-29,7.2585937474028935e-28,3.371148077204054e-27,2.6430698215445174e-27,4.1682722929397064e-29,3.1446402502623333e-30
2014-08,-1.2257552342462696e-27,-1.3502847461653981e-27,-8.959293575401852e-28,-3.1749860230314636e-28,-9.533270578745356e-28,-1.3153428678763575e-27,4.919372354986702e-28,-4.510112204369559e-28,-1.2396295949137534e-27,-1.8195774301088746e-28,-3.8312386659892214e-28,-1.2485837227512494e-27,4.9575409872265654e-30,-1.1242818464378673e-27,-6.688402267318654e-28,-1.2789630303167718e-27,-5.82836056635129e-27,-4.598452786125171e-27,2.50291231408816e-28,1.7646062373790435e-29
2014-09,-1.3305079134187111e-27,-1.473723734343704e-27,-9.69167757888795e-28,-3.1768790787331036e-28,-1.1584507251255742e-27,-1.525377371974065e-27,1.0070956958303217e-27,-6.367435851623658e-28,-1.2724862968155779e-27,-1.745432322810416e-28,-4.6605826665807155e-28,-4.050408547553868e-27,8.858363569897808e-30,-3.4663400512772734e-27,-1.4341387794702282e-27,-4.1970908025670025e-27,-1.9268542867792588e-26,-1.5165045399298268e-26,4.094698840674105e-28,2.840685952832772e-29
2014-10,5.048095481366097e-28,5.339647416823447e-28,3.781299042565449e-28,2.0488455667825655e-28,5.242574502619441e-29,2.7312096921004705e-28,1.0990253638205646e-27,-2.1919834017950934e-28,7.115829234104668e-28,1.3811586800349868e-28,1.9695712314685674e-29,-6.900499952028356e-27,7.52451341218377e-30,-5.7160251460725624e-27,-1.6727537137918194e-27,-7.200814168474152e-27,-3.320544735487302e-26,-2.609542836466446e-26,2.760003893477193e-28,1.8188579756624602e-29
2014-11,5.229047912748865e-27,5.754114143464242e-27,3.824571157752647e-27,1.3751238133094974e-27,3.971964693314018e-27,5.536294120246553e-27,-1.7354517932132525e-27,1.8110296520828495e-27,5.3443297217479876e-27,7.938547017485821e-28,1.5958733470388234e-27,3.2577855088906845e-27,-1.8479874335404584e-29,3.0722577993406334e-27,2.3097246575904665e-27,3.300107096177267e-27,1.4929931113150564e-26,1.1808125190024017e-26,-9.61977278330242e-28,-6.817576681907387e-29
2014-12,8.33454369881549e-27,9.206266932050335e-27,6.081552809803431e-27,2.0751562097030108e-27,6.866195697340476e-27,9.246895702908537e-27,-4.8143128560252435e-27,3.523788527661478e-27,8.20191046276991e-27,1.1659029744595472e-27,2.7609425741707437e-27,1.6860093929478396e-26,-4.450799314301964e-29,1.4619980316580383e-26,6.747083453034424e-27,1.7419801353519008e-26,7.982472353035844e-26,6.286377759532821e-26,-2.1297948845836818e-27,-1.4872133801180564e-28
2015-01,3.381348735323901e-27,3.8081381242514514e-27,2.4370537387376432e-27,5.969479748033918e-28,3.9097651963146375e-27,4.639010600036615e-27,-6.254307025292176e-27,2.767711479065888e-27,2.6631514148026123e-27,2.642387148651697e-28,1.5764261930104962e-27,3.1341614377537556e-26,-4.966791766419591e-29,2.63496143029751e-26,9.175029637846711e-27,3.2602400582517646e-26,1.5004205909859428e-25,1.1799260266918616e-25,-2.1167063191972584e-27,-1.4445387997870025e-28
2015-02,-1.4959091060813947e-26,-1.644312777168012e-26,-1.0948678254571324e-26,-3.9943885738627826e-27,-1.1085316042224807e-26,-1.5618919371550776e-26,3.902759276937239e-27,-4.8505528064746e-27,-1.5452925459431395e-26,-2.3225803573869132e-27,-4.452759638630405e-27,-3.270268754554211e-27,4.5061771724594846e-29,-3.74767021725749e-27,-5.0180875167681226e-27,-3.1361135870222696e-27,-1.3661101705756748e-26,-1.0944505637955344e-26,2.4427111347656034e-27,1.742661590314982e-28
2015-03,-3.161799627694267e-26,-3.4874374706567547e-26,-2.3091960962561477e-26,-8.041812280284526e-27,-2.526986551493965e-26,-3.4465022634279287e-26,1.5287638603942955e-26,-1.2442033274829584e-26,-3.157453222433444e-26,-4.5674300040453326e-27,-1.0158215577908637e-26,-4.7007886332391754e-26,1.4697410060473156e-28,-4.1334953061458845e-26,-2.1141490519384098e-26,-4.84159650258094e-26,-2.214160835238315e-25,-1.7448705507177896e-25,7.21289596970202e-27,5.059892521918479e-28
2015-04,-2.585923100500553e-26,-2.869198733449574e-26,-1.8815984563070147e-26,-6.0094260934235306e-27,-2.327256503384345e-26,-3.0244593230263766e-26,2.2471355303636123e-26,-1.327702969146995e-26,-2.4283921552256548e-26,-3.251696367506454e-27,-9.365555769920238e-27,-9.52297268169827e-26,1.9346518750128611e-28,-8.112700188900547e-26,-3.221070336945007e-26,-9.87770375650677e-26,-4.537659525337499e-25,-3.570550759396144e-25,8.802250680594079e-27,6.087776608708388e-28
2015-05,2.1306425803791617e-26,2.334142028694557e-26,1.562691360846462e-26,5.952996888096365e-27,1.4578601906033415e-26,2.1290632362994414e-26,-9.277045057026248e-28,5.467965099599349e-27,2.2725150220714819e-26,3.53286650386179e-27,5.850818155094533e-27,-2.1722930138663574e-26,-3.01464407470261e-29,-1.6646579850286465e-26,2.1580084494585884e-28,-2.3027011546953963e-26,-1.0722417195746642e-25,-8.399455577475129e-26,-2.1304581792650175e-27,-1.5764009196976172e-28
2015-06,7.89384893989067e-26,8.690207390352072e-26,5.772094912041916e-26,2.063478552747837e-26,6.053176620323922e-26,8.402705845187118e-26,-2.8381068711025143e-26,2.80185381739554e-26,8.034168476704466e-26,1.1878216824161434e-26,2.4323075219965926e-26,6.161225351720608e-26,-2.950145900264433e-28,5.67396586950499e-26,3.813450310091221e-26,6.277566061934018e-26,2.8508462584001835e-25,2.2518673638328035e-25,-1.5157754482891012e-26,-1.0718733712996288e-27
2015-07,1.0741588069803694e-25,1.1847944072297712e-25,7.845009153678802e-26,2.7318256566072346e-26,8.585949689096482e-26,1.1709608929459528e-25,-5.197549632693352e-26,4.2281406089887e-26,1.0726223118151024e-25,1.551505696707493e-26,3.451463895459305e-26,1.599208481223991e-25,-4.996003507899632e-28,1.4061137370360933e-25,7.18820588404497e-26,1.6471383483470682e-25,7.532778921109039e-25,5.93618936131845e-25,-2.4515677333288172e-26,-1.7197565375054973e-27
2015-08,6.335867917353908e-26,7.009977285151192e-26,4.6184299450981314e-26,1.5392325302854192e-26,5.395352799867886e-26,7.168161040359999e-26,-4.332123915012831e-26,2.8879217735244644e-26,6.131189852905078e-26,8.536788476554119e-27,2.1701765530684628e-26,1.6646780579942848e-25,-3.87758288777001e-28,1.4305614292560776e-25,6.13537688530131e-26,1.7233847122438358e-25,7.90733306569213e-25,6.224563511414171e-25,-1.8148585309709362e-26,-1.262054749061845e-27
2015-09,-6.222581493693377e-26,-6.767192635510117e-26,-4.584433250003197e-26,-1.9050998230134127e-26,-3.4935263127340014e-26,-5.614635544030424e-26,-2.6529615527012704e-26,-6.872908678079756e-27,-7.088572361255871e-26,-1.1737028514360453e-26,-1.3985477716693783e-26,2.30002556269209e-25,-1.2684716145520638e-28,1.8741958561424004e-25,4.3133264526025294e-26,2.4083830464417635e-25,1.1129803440899143e-24,8.740437290898807e-25,-2.293401355387516e-27,-1.1143666243540426e-28
2015-10,-2.988138913159143e-25,-3.2747861163588263e-25,-2.191094539477952e-25,-8.307046261345627e-26,-2.0637666685496384e-25,-3.001064877637319e-25,2.0348335315534997e-26,-7.896874969224578e-26,-3.1757748414075013e-25,-4.919084383987181e-26,-8.283377479338549e-26,2.628561137281259e-25,4.76719212443301e-28,1.9862822668390804e-25,-1.4009173429430537e-26,2.793818244946486e-25,1.3030540279912293e-24,1.0202050262537279e-24,3.2015792826793827e-26,2.354340431046706e-27
2015-11,-6.323431095514938e-25,-6.967284682503289e-25,-4.62133239699287e-25,-1.6331224312919857e-25,-4.940012958520334e-25,-6.802954003399184e-25,2.6219281833791235e-25,-2.3528487553145725e-25,-6.382012273993775e-25,-9.346012436246001e-26,-1.9853852396309228e-25,-6.920391639248382e-25,2.6193220744989323e-27,-6.199284794203142e-25,-3.576322994716229e-25,-7.097329605602942e-25,-3.23684756390242e-24,-2.5531385951540263e-24,1.3157022943800869e-25,9.267772193573017e-27
2015-12,-6.247972494097056e-25,-6.926389350369023e-25,-4.548709796110623e-25,-1.4721270105441997e-25,-5.530472883685163e-25,-7.234492571187034e-25,5.075402124299667e-25,-3.0977926603120722e-25,-5.922037688046539e-25,-8.028411120392835e-26,-2.2253000848201367e-25,-2.0992289700814787e-24,4.41422755335338e-27,-1.792093401012046e-24,-7.252717753299451e-25,-2.176429153334337e-24,-9.995266260185962e-24,-7.865739739647194e-24,2.0236536148713627e-25,1.401663124637915e-26
2016-01,3.886334577132034e-25,4.164415040294558e-25,2.8888941587443634e-25,1.3977045066875337e-25,1.2279382266979338e-25,2.7534768730698375e-25,5.306925666118924e-25,-7.062848807658679e-26,4.991002868833744e-25,9.10207232609782e-26,4.862406390795338e-26,-3.5157217636198245e-24,3.474783005173593e-27,-2.9032627565200434e-24,-8.157060787088532e-25,-3.67111931113793e-24,-1.693572606774693e-23,-1.3307609842532996e-23,1.2062489031657965e-25,7.834311143611014e-27
2016-02,2.867773868975261e-24,3.1561549099899667e-24,2.0973417571652304e-24,7.527600631081027e-25,2.184779361004506e-24,3.0413534015844515e-24,-9.763760818989975e-25,1.0008785982143996e-24,2.9271981252906514e-24,4.341807660127917e-25,8.778367800367277e-25,1.926805363924686e-24,-1.0315738222932778e-26,1.8017027847025108e-24,1.3035453698114812e-24,1.9559280650748483e-24,8.860970348278643e-24,7.004926032032013e-24,-5.347428801254883e-25,-3.787082914344693e-26
2016-03,4.3908257457560714e-24,4.851241304973586e-24,3.2034144540959306e-24,1.089313168175026e-24,3.63528406108564e-24,4.885698227027234e-24,-2.6052257441642977e-24,1.8778579725295488e-24,4.310302972582595e-24,6.10877880671775e-25,1.4618403562786996e-24,9.274978982277569e-24,-2.3954464638260434e-26,8.029392684514159e-24,3.6576975271549824e-24,9.586413477669841e-24,4.393923355819481e-23,3.460043418655644e-23,-1.1421009653804918e-24,-7.96979610962914e-26
2016-04,1.4794976886774713e-24,1.676225585125719e-24,1.0621931789269105e-24,2.2773836246714923e-25,1.864233879346725e-24,2.150997226829137e-24,-3.323982401656139e-24,1.3937554428675576e-24,1.074513335288931e-24,8.710352957664904e-26,7.520801778035395e-25,1.7059729132721856e-23,-2.6049325551423126e-26,1.431783121113027e-23,4.8937423300215775e-24,1.775256223984664e-23,8.171953381454729e-23,6.425900454661992e-23,-1.097238827922891e-24,-7.46937146284092e-26
2016-05,-8.701794613598198e-24,-9.566891758277539e-24,-6.368158520107251e-24,-2.3174508696504375e-24,-6.4764333235179955e-24,-9.107756655329495e-24,2.3775347365745587e-24,-2.8549701920244752e-24,-8.97249038371086e-24,-1.3458521352482678e-24,-2.6015782957349996e-24,-2.5134335744791723e-24,2.700112571414221e-26,-2.689300970607825e-24,-3.0796174412131467e-24,-2.4611768342898647e-24,-1.088126742905323e-23,-8.673274609462094e-24,1.4521825554581896e-24,1.0346968411997072e-25
2016-06,-1.7606999268426954e-23,-1.942422135726775e-23,-1.2857542418043554e-23,-4.465304367319922e-24,-1.413118830455284e-23,-1.9239191083874184e-23,8.739872129610684e-24,-6.999077527460522e-24,-1.7547777621881772e-23,-2.532444480547685e-24,-5.6808192482915374e-24,-2.7468511919545313e-23,8.351105609440435e-26,-2.4094233339569115e-23,-1.2112299146545495e-23,-2.830710758266057e-23,-1.2950053532318188e-22,-1.0204078493414006e-22,4.082642502575567e-24,2.862019829932881e-25
2016-07,-1.3407424229500542e-23,-1.4892436620403983e-23,-9.748921363023357e-24,-3.0611781780961947e-24,-1.231674443790622e-23,-1.5878867469188066e-23,1.2609146878818526e-23,-7.181957362511589e-24,-1.2442641363022789e-23,-1.6394179865496253e-24,-4.957489166627843e-24,-5.483318877154274e-23,1.0734998260945374e-25,-4.6611543703956104e-23,-1.8134794720379072e-23,-5.69026921323307e-23,-2.614804450461522e-22,-2.0573072751003071e-22,4.842846646316042e-24,3.3437809008513465e-25
2016-08,1.4564723035898065e-23,1.5971787342842032e-23,1.0675693378889657e-23,4.0158601970057446e-24,1.0211266852040328e-23,1.4747811307098574e-23,-1.573774178599208e-24,4.0301283964554e-24,1.5389399719370512e-23,2.369401990673146e-24,4.0992059634316154e-24,-9.496933785604284e-24,-2.7513229525335204e-26,-6.918822658842689e-24,1.553881718985319e-24,-1.0162561101195506e-23,-4.759371773370277e-23,-3.721253268589864e-23,-1.729994576713551e-24,-1.2613616042134712e-25
2016-09,4.708202779305534e-23,5.1851083532259314e-23,3.4419083169784885e-23,1.2242887531511548e-23,3.639959436249792e-23,5.0350796725036497e-23,-1.806037652068197e-23,1.7063776565980768e-23,4.774396901012423e-23,7.029652720747066e-24,1.462741792635229e-23,4.3200920077911634e-23,-1.8428369884670146e-25,3.9219325042200227e-23,2.4440423805534788e-23,4.416707058170252e-23,2.0102303037226137e-22,1.586689762326486e-22,-9.370590998224336e-24,-6.614614993131177e-25
2016-10,5.910662550077854e-23,6.52433875984572e-23,4.3147679667813066e-23,1.4868235944239205e-23,4.799718669931042e-23,6.502710344497348e-23,-3.147795755589643e-23,2.4161091976299516e-23,5.857752806676733e-23,8.397618186617933e-24,1.9297332025241122e-23,1.0439220924198223e-22,-2.96061172965064e-25,9.103487664804778e-23,4.3861356915918926e-23,1.0772126595720924e-22,4.932242014912335e-22,3.885298521032827e-22,-1.432814723602129e-23,-1.0025965387019187e-24
2016-11,2.429864597453021e-23,2.695093924334675e-23,1.7684387300828937e-23,5.678610581481253e-24,2.1721921524716905e-23,2.830395785085257e-23,-2.055598404526398e-23,1.2301788242661993e-23,2.2904790407460328e-23,3.0826038882559635e-24,8.74102194246095e-24,8.629695526450808e-23,-1.7767959118952493e-25,7.357622315675102e-23,2.9429765404599153e-23,8.949578306254313e-23,4.1108350506015705e-22,3.2348150149639823e-22,-8.108170181233344e-24,-5.611012849778786e-25
2016-12,-5.272329544323336e-23,-5.764253625558971e-23,-3.871734874720508e-23,-1.5120748635102337e-23,-3.428575278350205e-23,-5.127147803165844e-23,-4.550831526244156e-24,-1.1400654205196472e-23,-5.729152628887296e-23,-9.074487488811577e-24,-1.3751662572894206e-23,9.275490031984569e-23,2.4280450357700648e-26,7.369380571087352e-23,9.713446269332168e-24,9.762732723534646e-23,4.526132767183212e-22,3.5506844156463534e-22,3.277938378354397e-24,2.561881032627214e-25
2017-01,-1.7467827994871827e-22,-1.9165431254093334e-22,-1.2799451500292512e-22,-4.7825667776633154e-23,-1.2401519637455593e-22,-1.7809704604014421e-22,2.480133836651029e-23,-5.0178131525501044e-23,-1.836533445940107e-22,-2.812914267787836e-23,-4.979153582474711e-23,8.01376295123424e-23,3.7353069704672274e-25,5.484407663649429e-23,-2.7506852004355594e-23,8.66962715983795e-23,4.086792513844377e-22,3.1885556260710763e-22,2.2474309410929243e-23,1.6286899610799348e-24
2017-02,-3.222705208662342e-22,-3.551679736961182e-22,-2.3548925334414046e-22,-8.295066325197139e-23,-2.53053086625694e-22,-3.477258924201821e-22,1.3855256062736275e-22,-1.214446707292714e-22,-3.2449497067913897e-22,-4.739232256207445e-23,-1.0170690485926669e-22,-3.8076272076335594e-22,1.3711373547882035e-24,-3.3933425030842506e-22,-1.8964045976410318e-22,-3.9096447771445745e-22,-1.7844289840747248e-21,-1.4071476870139932e-21,6.848911813452075e-23,4.819637192869339e-24
2017-03,-2.8235135721726815e-22,-3.133883201912528e-22,-2.0540353035956012e-22,-6.525819880920396e-23,-2.5574842638099366e-22,-3.3152923546978608e-22,2.516360253013873e-22,-1.4692155857019087e-22,-2.641814272645421e-22,-3.5199933330594097e-23,-1.0292631313336936e-22,-1.0755449965139108e-21,2.15853082256484e-24,-9.156022637969788e-22,-3.6109555186170004e-22,-1.1157856951729503e-21,-5.126255980365457e-21,-4.033565458952559e-21,9.793771411880791e-23,6.769854562254171e-24
2017-04,2.731646441372474e-22,2.9481534112975936e-22,2.0218537425787528e-22,9.11922831729051e-23,1.1866534788780072e-22,2.1908287435558116e-22,2.4921813351868807e-22,-1.1129662909443661e-23,3.3168730136079777e-22,5.796811078089047e-23,4.7310749284946306e-23,-1.7659327402436317e-21,1.5325282472512502e-24,-1.4529691164041324e-21,-3.8805312860018453e-22,-1.845406420951643e-21,-8.517392252010038e-21,-6.6916550143777086e-21,4.8731088462618455e-23,3.085505748263912e-24
2017-05,1.5612467593081107e-21,1.7184749300681816e-21,1.1417199534726196e-21,4.090387272111471e-22,1.1929596819252906e-21,1.658542122010144e-21,-5.451035906201542e-22,5.491057265563148e-22,1.5915042948773252e-21,2.357147561866991e-22,4.793416660989397e-22,1.1261840558654215e-21,-5.715612667800537e-24,1.0452096720080197e-21,7.299510280361636e-22,1.1452962693767724e-21,5.19477581198977e-21,4.105013162732174e-21,-2.9506715641992214e-22,-2.088236036547825e-23
2017-06,2.2911815662085346e-21,2.5321037925137907e-21,1.6712990942207829e-21,5.661638439490823e-22,1.907265803131937e-21,2.557570581195475e-21,-1.3989764873695676e-21,9.9218844058904e-22,2.243056089782043e-21,3.1684358910444804e-22,7.669993674522886e-22,5.065031620789665e-21,-1.2790308289009439e-23,4.377533687031706e-21,1.9678098979625394e-21,5.237044633997338e-21,2.4009614587239253e-20,1.8905149642643517e-20,-6.074766499984907e-22,-4.23605800726459e-23
2017-07,5.988704256002261e-22,6.853994224972057e-22,4.271008819105942e-22,6.908003438334404e-23,8.60632651317469e-22,9.543911857962755e-22,-1.75116611959582e-21,6.903744936089448e-22,3.722754154818055e-22,1.5566215630657694e-23,3.474656499599638e-22,9.216425471591779e-21,-1.3525801763385402e-23,7.721432184531263e-21,2.588098071280059e-21,9.594370701984652e-21,4.417590192471944e-20,3.473433569835705e-20,-5.62290167810025e-22,-3.816849664699429e-23
2017-08,-5.011605166284127e-21,-5.5107860961718614e-21,-3.667207414008541e-21,-1.3315107364453659e-21,-3.7445220972521145e-21,-5.256908721010683e-21,1.4250139526122499e-21,-1.6615931296620121e-21,-5.158898527756182e-21,-7.724087612849812e-22,-1.5042330871683543e-21,-1.7649982643182326e-21,1.5960250946490078e-23,-1.8133832407382852e-21,-1.8570447043664963e-21,-1.7482949875229618e-21,-7.791195065200532e-21,-6.193467875375848e-21,8.525815767245264e-22,6.068089237825817e-23
2017-09,-9.732383925576186e-21,-1.0738956840083551e-20,-7.106225439666354e-21,-2.4612204802419832e-21,-7.84325750788466e-21,-1.0659972191450062e-20,4.954036354734612e-21,-3.907056354766971e-21,-9.680646869994816e-21,-1.393854241941572e-21,-3.153160542502613e-21,-1.5884155638772554e-20,4.7065373527312935e-23,-1.3902219603494595e-20,-6.879275301556558e-21,-1.6377259663993078e-20,-7.494732955482186e-20,-5.904894240410214e-20,2.2925336842391003e-21,1.6060582142299834e-22
2017-10,-6.872363132389529e-21,-7.643044654574054e-21,-4.9931638178403814e-21,-1.5372898145269953e-21,-6.459267239680035e-21,-8.254413409152683e-21,7.021666490194726e-21,-3.855066792761038e-21,-6.291567771250238e-21,-8.132229910862023e-22,-2.6003536370650508e-21,-3.128774610195283e-20,5.912988330032651e-23,-2.6543320077326153e-20,-1.013142478733717e-20,-3.2482753060872296e-20,-1.4930663402492625e-19,-1.1746249698784442e-19,2.6449915790865503e-21,1.823174341891209e-22
2017-11,9.515795172045053e-21,1.0442156061492405e-20,6.971994266426964e-21,2.600089772088485e-21,6.780038907703293e-21,9.721120481936774e-21,-1.4435673223421617e-21,2.7622829895390032e-21,9.99043563464817e-21,1.527877400112568e-21,2.722261591268092e-21,-3.838736008717341e-21,-2.1028228872821712e-23,-2.548641473832759e-21,1.6368960930541485e-21,-4.173797620652106e-21,-1.973329743156114e-20,-1.5381243315479393e-20,-1.251248624464699e-21,-9.053347401509634e-23
2017-12,2.771999485923926e-20,3.0537579756774516e-20,2.026052862177611e-20,7.175433490864554e-21,2.158060372577026e-20,2.976293640836748e-20,-1.1207123812532479e-20,1.0225006125725426e-20,2.802106909884744e-20,4.110918754778946e-21,8.67291754098458e-21,2.8704208358991436e-20,-1.1271667037498138e-22,2.581518289289875e-20,1.5248525643301124e-20,2.941096798613178e-20,1.340533326687738e-19,1.0575873603955021e-19,-5.684166690544529e-21,-4.006656467425653e-22
2018-01,3.2286484638409604e-20,3.566550859399265e-20,2.355793293186067e-20,8.031641179972916e-21,2.663110183531774e-20,3.5846606035132697e-20,-1.8774977246018712e-20,1.3689462370194696e-20,3.175334582727544e-20,4.510415119118501e-21,1.0708666400387124e-20,6.602619622270861e-20,-1.7333603291099586e-22,5.72295369490384e-20,2.6324375940805986e-20,6.822449365864169e-20,3.126515642317397e-19,2.4621526991974614e-19,-8.286900266567155e-21,-5.7856790527141395e-22
2018-02,7.471134160273528e-21,8.339444895937806e-21,5.415596218910102e-21,1.5691294503330966e-21,7.490609548574529e-21,9.343536932818614e-21,-9.426255033787574e-21,4.74869984880758e-21,6.562803455141881e-21,7.970561714061981e-22,3.0171136169320517e-21,4.422652743463012e-20,-7.745786902465377e-23,3.736676814873037e-20,1.369753947882647e-20,4.5956527040495123e-20,2.1135746836706434e-19,1.6624808285423235e-19,-3.397573127302235e-21,-2.3326427347347236e-22
2018-03,-3.894951466450242e-20,-4.269232554238258e-20,-2.855760743185912e-20,-1.0806391209102848e-20,-2.6999721251355747e-20,-3.919626377161073e-20,3.0316269806463047e-21,-1.041134110621289e-20,-4.1336707068837384e-20,-6.393472422873788e-21,-1.0837377382328324e-20,3.2101943580634306e-20,6.492645785330404e-23,2.409008899435829e-20,-2.3937443747977818e-21,3.416486698992276e-20,1.5947406977173224e-19,1.2482492261038028e-19,4.283625006520884e-21,3.1429898016574157e-22
2018-04,-1.0104694680180068e-19,-1.1098057968501717e-19,-7.399465436820412e-20,-2.728599540844219e-20,-7.348326799899902e-20,-1.0440123777449957e-19,2.1018384635112636e-20,-3.1102290052875216e-20,-1.0520826763034361e-19,-1.594817059264507e-20,-2.9510907238824657e-20,8.353629405965245e-21,2.651094093689969e-22,5.53368151585774e-23,-2.5897505217415113e-20,1.0544256406472932e-20,5.391388549867048e-20,4.099158033978738e-20,1.4943779874033482e-20,1.0726292369066971e-21
2018-05,-1.6193406647459737e-19,-1.7851400628660996e-19,-1.183077829191586e-19,-4.151456370590279e-20,-1.279173216970098e-19,-1.7532767514264947e-19,7.254115365768404e-20,-6.193223324051733e-20,-1.6260053436021348e-19,-2.3671828281754e-20,-5.141548576751142e-20,-2.07967205466779e-19,7.104382973599547e-22,-1.843768721798375e-19,-9.966296707153958e-20,-2.1379549655474533e-19,-9.765534161542385e-19,-7.698825569564239e-19,3.5265151603814597e-20,2.4788997049413508e-21
2018-06,-1.2048720215598902e-19,-1.339847691392871e-19,-8.754666826012571e-20,-2.69992891408678e-20,-1.1302760588902038e-19,-1.445460571018891e-19,1.2227397956588365e-19,-6.732907883920468e-20,-1.1043295592763324e-19,-1.429786319398541e-20,-4.5501610359859687e-20,-5.438081758958919e-19,1.0305669954955486e-21,-4.614169851018612e-19,-1.763819677363535e-19,-5.645595225340931e-19,-2.5949368863718674e-18,-2.041502816297835e-18,4.6130383650682465e-20,3.1801654311367055e-21
2018-07,1.8178672619714568e-19,1.9709980128630936e-19,1.3417684325889852e-19,5.765606343765328e-20,9.287966121172971e-20,1.5677814292492868e-19,1.1262940774907e-19,9.15077674496798e-21,2.1251162097397182e-19,3.599355763292622e-20,3.7130764404242974e-20,-8.720243020555739e-19,6.287261326800635e-22,-7.142764532190156e-19,-1.78584117350042e-19,-9.121218311350869e-19,-4.2123251256038705e-18,-3.308754295053619e-18,1.6929812881565794e-20,1.0125052062282386e-21
2018-08,8.436064487386423e-19,9.286912675609674e-19,6.168657858667636e-19,2.2059216641174385e-19,6.46571870568377e-19,8.977315358287192e-19,-3.0206522789226695e-19,2.9904510223077276e-19,8.587937673171723e-19,1.2700130642396642e-19,2.5980632844670197e-19,6.513795888950148e-19,-3.1436736404514477e-21,6.004838545625594e-19,4.0568309861188906e-19,6.635147817268352e-19,3.0127474852618343e-18,2.379881370346739e-18,-1.6162803998255802e-19,-1.1430736238857873e-20
2018-09,1.1829426250884099e-18,1.3077206670882008e-18,8.627347549056526e-19,2.910077568650099e-19,9.907104197710763e-19,1.3252047311744004e-18,-7.451925309831511e-19,5.193928462989006e-19,1.1545583770309558e-18,1.6247569673905052e-19,3.984328298629814e-19,2.7455244447813264e-18,-6.771951727236598e-21,2.3688302904761514e-18,1.0502570105438133e-18,2.8398382686662424e-18,1.3022583334662769e-17,1.0253148907553459e-17,-3.2031026626188906e-19,-2.2318678709792024e-20
2018-10,2.0893059056667808e-19,2.4426748205298357e-19,1.4687462369754089e-19,6.852927922632341e-21,3.7940488169405063e-19,3.954545615286576e-19,-9.137877482212457e-19,3.350722477570166e-19,8.309656082989607e-20,-9.269352908887378e-21,1.5335111675427658e-19,4.940568173211401e-18,-6.94459099915688e-21,4.1314986372176335e-18,1.35621350023274e-18,5.145209220749208e-18,2.3696296275784726e-17,1.8630222686820616e-17,-2.843696451497175e-19,-1.9238868203321636e-20
2018-11,-2.8602030745351233e-18,-3.14559070758273e-18,-2.09272818453971e-18,-7.582493434806202e-19,-2.144700037693071e-18,-3.006234812887984e-18,8.425159901009565e-19,-9.57393732480399e-19,-2.939749437642888e-18,-4.39406844108109e-19,-8.615916538130363e-19,-1.1738660935276754e-18,9.32365147793047e-21,-1.1737239313789208e-18,-1.1036067542834808e-18,-1.171360128868566e-18,-5.246356293202492e-18,-4.16342090677063e-18,4.95097006841926e-19,3.520335772349793e-20
2018-12,-5.340372778279363e-18,-5.893844810185307e-18,-3.8988689881071544e-18,-1.346695940106566e-18,-4.321343428475665e-18,-5.863237200208966e-18,2.785636776871021e-18,-2.16480885626199e-18,-5.301595798754758e-18,-7.615742816239781e-19,-1.7373427542350463e-18,-9.099065540320683e-18,2.6320041298378494e-20,-7.947693079422624e-18,-3.875463344846582e-18,-9.385804654725719e-18,-4.296481533654908e-17,-3.384751324305132e-17,1.2775486764795068e-18,8.944311602402492e-20
2019-01,-3.476538733575084e-18,-3.872002970713866e-18,-2.5235881653221734e-18,-7.589225175591584e-19,-3.3536129389396817e-18,-4.2436160648553336e-18,3.881302682606435e-18,-2.05259851678184e-18,-3.1318739522476165e-18,-3.9540635663309724e-19,-1.3503754814920954e-18,-1.770310135861333e-17,3.2331873672160574e-20,-1.4990474774381882e-17,-5.617991840158249e-18,-1.8386749201840977e-17,-8.453631183702043e-17,-6.650069691172476e-17,1.433913394053288e-18,9.866821971051838e-20
2019-02,6.022420466477203e-18,6.611968107517194e-18,4.4111315875328716e-18,1.6346222155611153e-18,4.3412033410055856e-18,6.1920071142725406e-18,-1.1057146767278916e-18,1.8079754606703735e-18,6.2931407443676115e-18,9.57649019548329e-19,1.743263004066211e-18,-1.3351843214398595e-18,-1.4720316099445112e-20,-7.010665903037774e-19,1.3234959375511277e-18,-1.5010719920429224e-18,-7.234061038012581e-18,-5.6037912456579295e-18,-8.478450838207552e-19,-6.105433858367559e-20
2019-03,1.613722375590169e-17,1.7782491725262433e-17,1.1792616169334152e-17,4.16041146105428e-18,1.2640153444370965e-17,1.738730327695661e-17,-6.8187883435008e-18,6.0441336552171675e-18,1.6266995863737696e-17,2.378878531179335e-18,5.080196518567571e-18,1.8388090492046033e-17,-6.778290287329643e-20,1.6426617153334433e-17,9.317812633113174e-18,1.8870321924908816e-17,8.609666524589448e-17,6.79013582347606e-17,-3.3948269458255113e-18,-2.390084331637723e-19
2019-04,1.7505787554269243e-17,1.935276462332607e-17,1.2767003043723138e-17,4.304980282086084e-18,1.4667924725370596e-17,1.9616492274794595e-17,-1.105409062622148e-17,7.694438131078323e-18,1.7081672451372888e-17,2.403119032747175e-18,5.8990076388939054e-18,4.077978356424271e-17,-1.0040846353335551e-19,3.518025493527314e-17,1.5581680572560608e-17,4.2181820870634055e-17,1.9343567726256683e-16,1.5229797550628888e-16,-4.7477891199526595e-18,-3.3079854222919217e-19
2019-05,8.413823729383859e-19,9.910667080396485e-19,5.884248323246374e-19,2.879361388429396e-21,1.641334576052109e-18,1.6820914242821865e-18,-4.11393599636903e-18,1.4843950029639633e-18,2.675934664095074e-19,-5.839582646347842e-20,6.6360478719745e-19,2.2368573284472883e-17,-3.115637670952573e-20,1.869834018196403e-17,6.111229715793963e-18,2.329699392299234e-17,1.0729998381779512e-16,8.435868882599852e-17,-1.2715874168451695e-18,-8.596499599253592e-20
2019-06,-2.6733275927790457e-17,-2.93466445653187e-17,-1.9582323969493398e-17,-7.268109159899268e-18,-1.921494500193765e-17,-2.7442263711364105e-17,4.695954772291292e-18,-7.95949120513548e-18,-2.796778059855339e-17,-4.261267668142775e-18,-7.715753262033907e-18,7.136010282076118e-18,6.378283050822859e-20,4.119676794430459e-18,-5.55723277642989e-18,7.923394012208603e-18,3.791824516375261e-17,2.9439448847254e-17,3.701729557493977e-18,2.668663792159074e-19
2019-07,-5.790251952153745e-17,-6.365399997427963e-17,-4.237634522645281e-17,-1.5437116727948848e-17,-4.301862457063342e-17,-6.054371200236006e-17,1.552899575815199e-17,-1.8906591929875484e-17,-5.974875509300182e-17,-8.969561416864095e-18,-1.7280227297227143e-17,-1.5065029359315706e-17,1.7752676901725577e-19,-1.6511837297611428e-17,-2.005599668896939e-17,-1.464729081611462e-17,-6.443553779226713e-17,-5.1448112181190885e-17,9.578105964238373e-18,6.827989267210405e-19
2019-08,-7.999908804251666e-17,-8.821982350251909e-17,-5.843436207313713e-17,-2.040907944784253e-17,-6.365321522227949e-17,-8.697835357292628e-17,3.75938294052457e-17,-3.114249002333054e-17,-8.005695902638553e-17,-1.1609142180597379e-17,-2.5586795979989938e-17,-1.1274847785364946e-16,3.6388452237028683e-19,-9.942648352377953e-17,-5.186534150598809e-17,-1.1605002040996826e-16,-5.304982158307424e-16,-4.1811774623924717e-16,1.7933442539907637e-17,1.2589914161704494e-18
2019-09,-4.6661166487045703e-17,-5.206769518163887e-17,-3.383008707643372e-17,-9.855404534107265e-18,-4.652871751636529e-17,-5.815470509419158e-17,5.789975738542995e-17,-2.9355684760599424e-17,-4.1138332171567715e-17,-5.02522334220199e-18,-1.8740326373021265e-17,-2.706799792447728e-16,4.766202759202602e-19,-2.287600773571243e-16,-8.409325131478107e-17,-2.812510915492332e-16,-1.2934450914542399e-15,-1.0174019416221339e-15,2.0936502736878606e-17,1.4378454917451585e-18
2019-10,1.1658399812655162e-16,1.2681550037639165e-16,8.588072735888436e-17,3.5599903354677285e-17,6.58818121824881e-17,1.0553196561926588e-16,4.8065820066861685e-17,1.3386757910055587e-17,1.325556967871609e-16,2.1910505365064868e-17,2.63765668442899e-17,-4.215872206087221e-16,2.2560975955898387e-19,-3.4336136872792375e-16,-7.835958443112651e-17,-4.414947490499904e-16,-2.0404018219014374e-15,-1.6023302325431701e-15,3.819470073877328e-18,1.767278859964155e-19
2019-11,4.523093831629487e-16,4.980001264934811e-16,3.307101576163526e-16,1.1803345239277106e-16,3.477665741051259e-16,4.821973008153703e-16,-1.661629158940954e-16,1.616453610720129e-16,4.598023704428656e-16,6.788901407709135e-17,1.3974450948966757e-16,3.732107539521581e-16,-1.7164372368421501e-18,3.4192845987280747e-16,2.2380874336791794e-16,3.807283014542145e-16,1.730405463485014e-15,1.3664685706139903e-15,-8.788401865589131e-17,-6.211000938223566e-18
2019-12,6.034473158315263e-16,6.673274277809701e-16,4.400073745694367e-16,1.4768681938266772e-16,5.088875569537804e-16,6.787838846698055e-16,-3.9354167852174115e-16,2.691238690007383e-16,5.868977792155887e-16,8.223226161173729e-17,2.0467183217051498e-16,1.4768975078679216e-15,-3.553025526293231e-18,1.2720147252125235e-15,5.558194087298157e-16,1.5282300104745986e-15,7.009718460085185e-15,5.518545936336774e-15,-1.6730082138369953e-16,-1.1647378175781429e-17
2020-01,4.7897287433906794e-17,6.045813119877284e-17,3.182612782713288e-17,-1.3367564310652181e-17,1.5553527872065366e-16,1.4478453806717334e-16,-4.717965433793456e-16,1.584213678118107e-16,-2.146885410975064e-17,-1.4857255749775837e-17,6.298410397950941e-17,2.6268818564532446e-15,-3.5198857598874644e-18,2.192383764741966e-15,7.035259471381971e-16,2.736838268587845e-15,1.2607862770812736e-14,9.911535294956058e-15,-1.4158602659803808e-16,-9.540525048503593e-18
2020-02,-1.618659342151592e-15,-1.780430431152862e-15,-1.1842175314427929e-15,-4.2823036607580205e-16,-1.2177844609046894e-15,-1.7044966033895233e-15,4.922809151383207e-16,-5.466287007422566e-16,-1.6612853608716604e-15,-2.479197531196672e-16,-4.8923823328134815e-16,-7.525038798292622e-16,5.390256093234257e-18,-7.377274762581034e-16,-6.477285089186116e-16,-7.548061683694624e-16,-3.3925064451521135e-15,-2.68906212828765e-15,2.846960261427577e-16,2.022519679764652e-17
2020-03,-2.9089143473504897e-15,-3.211021579786225e-15,-2.1234631914167774e-15,-7.314396191549771e-16,-2.363525285720493e-15,-3.201361434933177e-15,1.5543760101727926e-15,-1.19069782397639e-15,-2.882072048558501e-15,-4.130338830337295e-16,-9.502637012100548e-16,-5.167241069790008e-15,1.4608762015181766e-17,-4.504929424303221e-15,-2.1664033243846215e-15,-5.332328839522537e-15,-2.441606880287551e-14,-1.923315199942379e-14,7.066692024516499e-16,4.944413755824112e-17
2020-04,-1.7315142298572706e-15,-1.9318216458289634e-15,-1.2555074498319717e-15,-3.667866717488265e-16,-1.7216894511610252e-15,-2.1541429459795927e-15,2.1297727612896608e-15,-1.0834937053442223e-15,-1.529473340834165e-15,-1.8738908951127273e-16,-6.934277305302112e-16,-9.937446141720112e-15,1.7548478316875374e-17,-8.39970593258402e-15,-3.09243554866618e-15,-1.0325206707730875e-14,-4.7483596863631546e-14,-3.735004576162548e-14,7.714458462024516e-16,5.2988533585791063e-17
2020-05,3.721469608444974e-15,4.0873316655333045e-15,2.7251513564053288e-15,1.0048683100153702e-15,2.7065566134431157e-15,3.8451890518813e-15,-7.749796089224882e-16,1.1457470398830175e-15,3.874589723312129e-15,5.873137530291723e-16,1.0869551288698346e-15,-3.025805714230828e-16,-9.770294029312826e-18,2.1922462835584475e-18,9.55115960313977e-16,-3.830452605012584e-16,-1.9612245163387028e-15,-1.4905218346763995e-15,-5.506257076303169e-16,-3.952141275311065e-17
2020-06,9.300282062020994e-15,1.0251090250759514e-14,6.795301731354152e-15,2.3890411599044165e-15,7.324792697598126e-15,1.005228209171822e-14,-4.082727003918701e-15,3.5309489110682957e-15,9.351456247541004e-15,1.3635855550414597e-15,2.9440632114153287e-15,1.1468453815944783e-14,-4.0188625814756467e-17,1.0192865112594368e-14,5.59892514892884e-15,1.1783120627503656e-14,5.380194208228048e-14,4.242088723422813e-14,-2.0010500496775717e-15,-1.4073656194021126e-16
2020-07,9.419517907290325e-15,1.0421623824376524e-14,6.8662449716947036e-15,2.288676626304451e-15,8.019862680057697e-15,1.0655785352406492e-14,-6.4352236785482646e-15,4.291806349033567e-15,9.116047412701891e-15,1.2694209378821882e-15,3.2258298699640447e-15,2.4718342584383236e-14,-5.760872386983984e-17,2.1242800039407736e-14,9.113465689912122e-15,2.5589851048474316e-14,1.1741221549166834e-13,9.242573410007163e-14,-2.696592060166156e-15,-1.8752503753165139e-16
2020-08,-1.3359410149827665e-15,-1.434359294622161e-15,-9.91897940932801e-16,-4.709960618683642e-16,-4.65566843632133e-16,-9.808286595206592e-16,-1.657992737485769e-15,1.910569725522863e-16,-1.6899893745271284e-15,-3.0481579842172254e-16,-1.8478759635224133e-16,1.1138191429735076e-14,-1.0722611154034673e-17,9.190697895856247e-15,2.555136014034956e-15,1.1632412654958733e-14,5.366853352480429e-14,4.216976556923307e-14,-3.662251408015317e-16,-2.3678748613315628e-17
2020-09,-1.7513816163960464e-14,-1.924549230555284e-14,-1.282090343803867e-14,-4.695999206438157e-15,-1.2889233088301661e-14,-1.8215872675490046e-14,4.2278200873736605e-15,-5.572705598220285e-15,-1.8144732019061892e-14,-2.7358062598162077e-15,-5.176980575074012e-15,-1.883662213090856e-15,5.024794762697594e-17,-2.766747853610222e-15,-5.36400636653115e-15,-1.6445322249428144e-15,-6.653671543401759e-15,-5.471184225130731e-15,2.7604351513134937e-15,1.973496184329715e-16
2020-10,-3.289204584172007e-14,-3.6190470961405963e-14,-2.405933855749599e-14,-8.6645356163715e-15,-2.4917412165355465e-14,-3.477160052924901e-14,1.0659087790549856e-14,-1.1311776892482804e-14,-3.3656949774315123e-14,-5.0060399785943426e-15,-1.0011148859512285e-14,-1.9026322180431575e-14,1.1435176869543287e-16,-1.8103612133161036e-14,-1.4143573152836867e-14,-1.9230686296549238e-14,-8.687337520701127e-14,-6.874230313999228e-14,5.976133933251299e-15,4.2381003464897413e-16
2020-11,-3.869788876282297e-14,-4.269276854395717e-14,-2.8258845045042743e-14,-9.811267602848885e-15,-3.107176869098356e-14,-4.2295701948209695e-14,1.925983173020076e-14,-1.539884290889491e-14,-3.855989077207999e-14,-5.563520298388934e-15,-1.24910821913094e-14,-6.066120510369e-14,1.8391926734447592e-16,-5.319681912978615e-14,-2.6697187973136908e-14,-6.25165217841253e-14,-2.860130700425318e-13,-2.2536325516593707e-13,8.987890987802968e-15,6.300268157472361e-16
2020-12,-1.470404816514119e-14,-1.6547688666844513e-14,-1.0602792454735135e-14,-2.637022675776011e-15,-1.6813060830427546e-14,-2.002398815427585e-14,2.6474763354280895e-14,-1.1810809158428256e-14,-1.1692525803976315e-14,-1.184133990786929e-15,-6.778551513637141e-15,-1.3217528927553216e-13,2.1067425027242567e-16,-1.1115314868206319e-13,-3.881681186584355e-14,-1.3748425624651106e-13,-6.327035884637941e-13,-4.97562233933282e-13,8.994220796890184e-15,6.140374138320268e-16
2021-01,7.277365267161853e-14,7.935391853674139e-14,5.35280843337184e-14,2.157359324574068e-14,4.410041922717034e-14,6.822431694768133e-14,1.8617111714830014e-14,1.1898585511186328e-14,8.098461775315594e-14,1.3124217920520754e-14,1.767265982758538e-14,-1.982991032986453e-13,5.714585388659643e-17,-1.6027863252427867e-13,-3.1870781900304464e-14,-2.07989168254603e-13,-9.621794049960216e-13,-7.553560395851121e-13,-9.319420024023861e-16,-1.12366878277506e-16
2021-02,2.405389687913795e-13,2.6487770466717083e-13,1.7585559914470648e-13,6.263537531297621e-14,1.8556261047756967e-13,2.5692268286917456e-13,-9.073683837444073e-14,8.670096029387789e-14,2.4415749485790615e-13,3.598841363786126e-14,7.456793688907225e-14,2.119811268403087e-13,-9.302307149273153e-16,1.930942013089635e-13,1.225708401795956e-13,2.1654882888254421e-13,9.850938384618069e-13,7.77676910290443e-13,-4.7427431053904887e-14,-3.3493932950170165e-15
2021-03,3.03555289842606e-13,3.358242074184131e-13,2.212834032332166e-13,7.383959893207797e-14,2.5806310631916544e-13,3.430902591785999e-13,-2.0590357552680142e-13,1.3784841988201803e-13,2.940040846927049e-13,4.098041674558147e-14,1.037993139183606e-13,7.881517711891704e-13,-1.8456387617628793e-15,6.775525223454469e-13,2.9147832706379955e-13,8.158816649655803e-13,3.743285200255014e-12,2.946721703052834e-12,-8.647011216074933e-14,-6.0142901857014805e-15
2021-04,-1.06672083705584e-14,-7.586082808816626e-15,-9.51968731065259e-15,-1.6713464105020705e-14,5.5725407124629155e-14,3.909936470989084e-14,-2.406780343763084e-13,7.228296661937787e-14,-4.8626372346392086e-14,-1.3473522558960071e-14,2.2653400400925463e-14,1.3845472944326838e-12,-1.7571707193744035e-15,1.1530824684580173e-12,3.608224079846207e-13,1.4431551788363469e-12,6.650114609330435e-12,5.22742179312655e-12,-6.916272007111448e-14,-4.637104283760862e-15
2021-05,-9.087832778142631e-13,-9.997488908983898e-13,-6.648112819200999e-13,-2.3995576563556826e-13,-6.858755976246839e-13,-9.586815090451971e-13,2.8465286759433225e-13,-3.094717892671593e-13,-9.31438524159533e-13,-1.3879134533505393e-13,-2.755557771475252e-13,-4.695729547823627e-13,3.0870643080025168e-15,-4.534299973251186e-13,-3.760336727850593e-13,-4.728520944413924e-13,-2.130803106096134e-12,-1.6874925810536177e-12,1.622475654221499e-13,1.1516926705764605e-14
2021-06,-1.5726721355613773e-12,-1.736352337615742e-12,-1.147882232012456e-12,-3.9427470611695356e-13,-1.2831829132822986e-12,-1.735019540966074e-12,8.608999949188837e-13,-6.50128822258095e-13,-1.5549867612839673e-12,-2.2230499011987623e-13,-5.159289752171992e-13,-2.9106400511227263e-12,8.049050876165647e-15,-2.533065719245052e-12,-1.2019909727797442e-12,-3.004830338475039e-12,-1.3762252782830315e-11,-1.0839952311709998e-11,3.88035958896872e-13,2.713319996280878e-14
2021-07,-8.461627241666821e-13,-9.460783345107952e-13,-6.127068263989435e-13,-1.7244758132613886e-13,-8.725457422000696e-13,-1.0773149139117523e-12,1.1601017480375601e-12,-5.666056163688735e-13,-7.289980123963212e-13,-8.578250305364941e-14,-3.5152502635313715e-13,-5.535956196073501e-12,9.452565529402542e-15,-4.671217100362918e-12,-1.689810050144239e-12,-5.7541244054557326e-12,-2.6468353085018666e-11,-2.0818062549485132e-11,4.117422565408561e-13,2.8228107384152687e-14
2021-08,2.256639456669469e-12,2.479254904678173e-12,1.6521726161962946e-12,6.067817558725376e-13,1.6529346289557646e-12,2.3409157463578406e-12,-5.147862136883742e-13,7.08715977554518e-13,2.3425609777985045e-12,3.5396062128815685e-13,6.638703643988474e-13,7.201441753124657e-14,-6.254179630736526e-15,2.142454417800214e-13,6.462978259239651e-13,3.4001190629417444e-14,3.7640525601351e-14,6.061812798178706e-14,-3.4695281870508073e-13,-2.484230258169393e-14
2021-09,5.31118090644146e-12,5.855528911257849e-12,3.880079466034663e-12,1.3597621825327595e-12,4.203974525840775e-12,5.757172234795292e-12,-2.4117153145356623e-12,2.041383952537749e-12,5.328022810743919e-12,7.748219176101918e-13,1.6897923216942916e-12,7.00601981371572e-12,-2.3539963647178776e-14,6.2014597242860554e-12,3.3174025170396377e-12,7.20498470004723e-12,3.291790297957044e-11,2.594936491402414e-11,-1.1661005673816986e-12,-8.193920327582462e-14
2021-10,5.028246218514395e-12,5.5678339683303385e-12,3.663355580895365e-12,1.2061390055502831e-12,4.352607075853416e-12,5.744640380401759e-12,-3.7088169996914195e-12,2.376140026000947e-12,4.82398441613369e-12,6.643501497297915e-13,1.751013108499649e-12,1.4753620002017306e-11,-3.2763158239887556e-14,1.263857952476316e-11,5.2744149335397334e-12,1.5284601909046252e-11,7.01608633065617e-11,5.522168047266181e-11,-1.5191599222856542e-12,-1.0545421917510126e-13
2021-11,-1.7176194218869782e-12,-1.870656468233234e-12,-1.2643211155923029e-12,-5.167941400562038e-13,-1.0059455578287298e-12,-1.582673524363226e-12,-5.73023199453645e-13,-2.3926376526415865e-13,-1.9320561508663674e-12,-3.1624628151753226e-13,-4.0293846240951846e-13,5.441455603689158e-12,-2.330787898482211e-15,4.4172408465650416e-12,9.52214210542466e-13,5.702275717226143e-12,2.6364677607559787e-11,2.070131191120736e-11,-1.6918495687585975e-14,3.8935430341478214e-17
2021-12,-1.1106347513336057e-11,-1.2213515133211016e-11,-8.126612454715152e-12,-2.947714099202658e-12,-8.312472389131675e-12,-1.1661135084858812e-11,3.2121137923910995e-12,-3.699131286100184e-12,-1.1424410840431198e-11,-1.7091288604216075e-12,-3.3393095719318146e-12,-4.219660127074728e-12,3.5767555435416996e-14,-4.27552525592941e-12,-4.196424348145168e-12,-4.1956465555674246e-12,-1.8746267839785466e-11,-1.4888912233825227e-11,1.9051849410557996e-12,1.3553459635014434e-13
2022-01,-1.8532962342299548e-11,-2.0408074391055768e-11,-1.354931462419491e-11,-4.826345142660297e-12,-1.4295159216197181e-11,-1.9793706905566814e-11,6.983392907236257e-12,-6.67771993957119e-12,-1.881294562509516e-11,-2.773194868229797e-12,-5.7444709053194735e-12,-1.6288970946090093e-11,7.161574051460954e-14,-1.4841056478352812e-11,-9.4323192092096e-12,-1.663905893918647e-11,-7.568942771080912e-11,-5.9753306424582e-11,3.651939133120608e-12,2.5791293402910485e-13
2022-02,-1.8215612922318467e-11,-2.010746939153831e-11,-1.3297094539443948e-11,-4.580065413506673e-12,-1.480133955154615e-11,-2.0047666772868132e-11,9.737137757155864e-12,-7.457278575503421e-12,-1.804696428766503e-11,-2.5862402637473333e-12,-5.95093459656974e-12,-3.237798249470752e-11,9.15067747603398e-14,-2.822713355299866e-11,-1.3571459061465152e-11,-3.341263639521056e-11,-1.5299291719162037e-10,-1.2051620891144025e-10,4.426220479627694e-12,3.0969022559839494e-13
2022-03,-2.006867665889175e-12,-2.3926595771824007e-12,-1.3916140916991795e-12,8.94801966977264e-14,-4.357080313458944e-12,-4.3612250420659255e-12,1.1504374067402716e-11,-4.066910655283924e-12,-3.769349336228913e-13,2.2140394429096403e-13,-1.7623142487058917e-12,-6.299095933909058e-11,8.674808742467737e-14,-5.263063373873571e-11,-1.7108730423852506e-11,-6.561203020981245e-11,-3.0221132976489605e-10,-2.375919847003347e-10,3.5257074481093883e-12,2.381305580085701e-13
2022-04,4.4486834175438223e-11,4.860309363848e-11,3.268317290029175e-11,1.2874120039798648e-11,2.8399360613379135e-11,4.284317685452803e-11,5.8687460461936215e-12,8.988454033097497e-12,4.865480623170313e-11,7.755344075451588e-12,1.1388131362723953e-11,-8.982204020426155e-11,-5.5764379138789095e-15,-7.181263793253826e-11,-1.1232688060308378e-11,-9.442089718537259e-11,-4.374047467963697e-10,-3.432264678627148e-10,-2.1749838008470405e-12,-1.7648804984197473e-13
2022-05,1.2680770115507934e-10,1.3966153976663293e-10,9.269834806813054e-11,3.2943485744134245e-11,9.817729977249128e-11,1.3572289624508962e-10,-4.918205792617782e-11,4.6126287517448237e-11,1.2850721032481393e-10,1.8907031885787077e-11,3.945377023058924e-11,1.1942729256746648e-10,-5.003021585582709e-13,1.0819145054122261e-10,6.663361575651698e-11,1.221590975507243e-10,5.561778061702801e-10,4.3894776875714987e-10,-2.5395239771753856e-11,-1.7920869129040035e-12
2022-06,1.501651583018707e-10,1.662092796869962e-10,1.0943270641251849e-10,3.625599719598066e-11,1.2890700309915195e-10,1.7070659233361858e-10,-1.0662653113473435e-10,6.967546220288909e-11,1.44703709114733e-10,2.004106279744012e-11,5.185416219653556e-11,4.170530687138843e-10,-9.4806120306718e-13,3.578140738129586e-10,1.5132809611141107e-10,4.3191675278541593e-10,1.982200265904435e-09,1.5602466203455656e-09,-4.416448601045495e-11,-3.0684548745061036e-12
2022-07,-2.6158060745685342e-11,-2.6578588748655726e-11,-2.0044792071496264e-11,-1.4268420745663881e-11,1.4042303901588199e-11,-9.210920804683649e-13,-1.210715195643901e-10,3.1307177506289043e-11,-4.677748214940934e-11,-1.0269277226209578e-11,5.782136414613349e-12,7.228430339413987e-10,-8.611682260312673e-13,6.005929432214147e-10,1.826537922645723e-10,7.538155204527741e-10,3.4746967359657615e-09,2.731054162414274e-09,-3.297649471470984e-11,-2.1965362823747087e-12
2022-08,-5.06354800709826e-10,-5.571145519195342e-10,-3.70387482399982e-10,-1.3344491938356045e-10,-3.833180569581772e-10,-5.350750054932849e-10,1.6305123955111678e-10,-1.738151360625706e-10,-5.182906429431574e-10,-7.711566495394273e-11,-1.5400580320678562e-10,-2.8697812470935013e-10,1.7527422670300847e-12,-2.737603460046515e-10,-2.1617658323652916e-10,-2.8987436759217994e-10,-1.308931868934182e-09,-1.0358968071117502e-09,9.169652597585208e-11,6.503990792339278e-12
2022-09,-8.436901054032376e-10,-9.316947130748334e-10,-6.157226647850714e-10,-2.1086229905850012e-10,-6.913890730357895e-10,-9.331538258320901e-10,4.733287109321584e-10,-3.5234629640903503e-10,-8.324287790842198e-10,-1.1870242965174598e-10,-2.779981474571346e-10,-1.6268783447718713e-09,4.402456948537646e-12,-1.4134207851536671e-09,-6.620174100108894e-10,-1.680168154863342e-09,-7.697124588818135e-09,-6.062210343140124e-09,2.1151341639863572e-10,1.478068679209517e-11
2022-10,-4.036591090322882e-10,-4.525779174232643e-10,-2.917708630249276e-10,-7.806386012102295e-11,-4.355275760040202e-10,-5.291533574257087e-10,6.272012020644207e-10,-2.932501615537874e-10,-3.3636963032445777e-10,-3.734113575935721e-11,-1.7552095954337597e-10,-3.0611898640869096e-09,5.0515461995878924e-12,-2.5786289391884573e-09,-9.165463949154678e-10,-3.182997845675459e-09,-1.4644844901207169e-08,-1.1517672234956296e-08,2.1790722681929537e-10,1.4909012511045542e-11
2022-11,1.3473675529145094e-09,1.4806641507919744e-09,9.863024627337906e-10,3.6101721850121163e-10,9.927560122067686e-10,1.4022981077964637e-09,-3.297126699741104e-10,4.301049950180643e-10,1.395216157124207e-09,2.1025376168328457e-10,3.9874697254140044e-10,1.7031582984933143e-10,-3.898433187122751e-12,2.3401975958109666e-10,4.193365741054592e-10,1.5299088233280018e-10,6.338621834166796e-10,5.167974729237823e-10,-2.1366366370986925e-10,-1.5269651278498088e-11
2022-12,3.007507775635242e-09,3.316471290681467e-09,2.1968343696784455e-09,7.675629416312545e-10,2.3916271832088997e-09,3.268807091230034e-09,-1.408073434042389e-09,1.1691493699803136e-09,3.010492707606031e-09,4.3669160439950656e-10,9.61361223812407e-10,4.208851307988027e-09,-1.3641468717891486e-11,3.712994445975637e-09,1.9419979365625704e-09,4.331711208721951e-09,1.9800374105312803e-08,1.5606170207856028e-08,-6.726688957615825e-10,-4.7228404309752176e-11
2023-01,2.661554098436358e-09,2.9498024364416522e-09,1.938000086079161e-09,6.296132812321181e-10,2.344405595095411e-09,3.072716790481942e-09,-2.1180415424603425e-09,1.3059262781930383e-09,2.529508771639612e-09,3.4413609192946657e-10,9.432792540168793e-10,8.691718611381316e-09,-1.84805575621234e-11,7.425144260842955e-09,3.023685825309679e-09,9.010003371517007e-09,4.13745476593907e-08,3.256059005755049e-08,-8.492316556907068e-10,-5.884824237445157e-11
2023-02,-1.4777756806687696e-09,-1.6156714134601208e-09,-1.085198336292234e-09,-4.2376812081964306e-10,-9.612200406932558e-10,-1.4372630872911377e-09,-1.2668127260564503e-10,-3.1981948388978576e-10,-1.6056832120336738e-09,-2.543054527784982e-10,-3.8553656759758726e-10,2.594841380732949e-09,6.869739474123258e-13,2.061409214185717e-09,2.7094974161284985e-10,2.7312001867134738e-09,1.2662355121470995e-08,9.933392607229257e-09,9.213138429750746e-11,7.197752420834843e-12
2023-03,-6.873556006534957e-09,-7.563068225993191e-09,-5.027661871830132e-09,-1.8098860749174993e-09,-5.210603374393768e-09,-7.269121184979131e-09,2.240978010514412e-09,-2.3680625674846722e-09,-7.0313128892181944e-09,-1.045472213078267e-09,-2.093495520767305e-09,-4.052976059792954e-09,2.3995777763377477e-11,-3.8473248421295e-09,-2.975855335601884e-09,-4.0989306537441464e-09,-1.8523890845104004e-08,-1.4655902550245243e-08,1.2527876824282732e-09,8.882923858977022e-11
2023-04,-1.036169093682616e-08,-1.141897062603452e-08,-7.571670146538196e-09,-2.6685303550301943e-09,-8.12937274116041e-09,-1.1174744564081643e-08,4.428635223579543e-09,-3.896579084723081e-09,-1.0437247708791574e-08,-1.5250333968604785e-09,-3.2673240310829385e-09,-1.2093503486685388e-08,4.389299222253561e-11,-1.0786292872359234e-08,-6.058242099874248e-09,-1.2415232497886296e-08,-5.665850813578424e-08,-4.468099125758302e-08,2.1944632079923366e-09,1.5445072753278337e-10
2023-05,-8.259697322004407e-09,-9.12486840305956e-09,-6.026410994125721e-09,-2.0522462265475783e-09,-6.824152353230779e-09,-9.179344006700409e-09,4.846136876695167e-09,-3.515494816464257e-09,-8.116661115793595e-09,-1.1517896453320437e-09,-2.7441114240472455e-09,-1.7136253716992373e-08,4.4659933042532184e-11,-1.4845002434001394e-08,-6.7988357851930245e-09,-1.7708973841831683e-08,-8.116107647284113e-08,-6.391323807823776e-08,2.132528297579858e-09,1.4885368838203276e-10
2023-06,2.2448700963904902e-09,2.3793770689733627e-09,1.6795219927472295e-09,8.948526789215841e-10,3.077640505581325e-10,1.2734797091255423e-09,4.601783834645526e-09,-8.859335234386485e-10,3.120276621480885e-09,6.003364412681539e-10,1.1787918934106526e-10,-2.9059678944566105e-08,3.1362661644820084e-11,-2.4063435445934827e-08,-7.011289483895062e-09,-3.03265396313663e-08,-1.398524428540108e-07,-1.0990531604283772e-07,1.1442035851217709e-09,7.529960059820732e-11
2023-07,2.6740078457108035e-08,2.9260598077598323e-08,1.962598934261006e-08,7.583189278588248e-09,1.7782343711236162e-08,2.6314325071136945e-08,8.029539826152313e-10,6.2504089890095095e-09,2.8824488889305408e-08,4.529320449500577e-09,7.134214135883668e-09,-3.846924273551025e-08,-2.3376345865169807e-11,-3.023073944572027e-08,-2.673642886092735e-09,-4.0578694362841496e-08,-1.88382753690765e-07,-1.4771754551567743e-07,-2.1008439248046067e-09,-1.5936866494095524e-10
2023-08,6.621913561913162e-08,7.294455597800736e-08,4.840175862241691e-08,1.7159147846229525e-08,5.147014200195887e-08,7.103401464063783e-08,-2.6455194995219125e-08,2.4327458456132292e-08,6.698733097944217e-08,9.835790222924802e-09,2.0684735806843392e-08,6.676429318401018e-08,-2.669341119384292e-10,6.016379045171685e-08,3.5952043475373115e-08,6.83764472923323e-08,3.1156195707757517e-07,2.4582532703117734e-07,-1.3486336226864406e-08,-9.509331549985318e-10
2023-09,7.276267576752039e-08,8.058639611475899e-08,5.300523954732519e-08,1.740199073140432e-08,6.322331786148244e-08,8.331710799887832e-08,-5.4578873097672307e-08,3.46675250682691e-08,6.966637723866673e-08,9.569528953653966e-09,2.5435011302450398e-08,2.1867674962655687e-07,-4.807920620646027e-10,1.8720715566265873e-07,7.768603981740432e-08,2.265790300135192e-07,1.0401587348249847e-06,8.186557387713116e-07,-2.2248281123863288e-08,-1.5437901250934294e-09
2023-10,-2.5430227813523817e-08,-2.682193561277152e-08,-1.908048450339115e-08,-1.0579193368282587e-08,-1.4571875448259386e-09,-1.2824077260029502e-08,-5.989383394171365e-08,1.2451445787829956e-08,-3.654627733332007e-08,-7.177563604552906e-09,-5.116616004422974e-10,3.734209156217861e-07,-4.123430334574598e-10,3.094520072499224e-07,9.104592376050866e-08,3.896380975912174e-07,1.7966567454844484e-06,1.4119787919154904e-06,-1.5222904758708702e-08,-1.00484850025911e-09
2023-11,-2.800457774955939e-07,-3.081601002699689e-07,-2.0483040634162377e-07,-7.366597782070158e-08,-2.1262927131544923e-07,-2.9642761923078107e-07,9.258985298577005e-08,-9.688110156434873e-08,-2.8627441077503514e-07,-4.253267848117015e-08,-8.543073663346133e-08,-1.7245878650869486e-07,9.871052040480394e-10,-1.628584186359669e-07,-1.2316982001465845e-07,-1.7464036179293872e-07,-7.899105862249109e-07,-6.247891274347286e-07,5.1416459532699225e-08,3.6442908363129128e-09
2023-12,-4.4895046032212677e-07,-4.958900506676206e-07,-3.2759730372876365e-07,-1.118373020688522e-07,-3.6959699095792085e-07,-4.978908642108369e-07,2.5833754191182567e-07,-1.8950479537785735e-07,-4.4195913969785644e-07,-6.285091841945934e-08,-1.4861640028790534e-07,-9.025424899932235e-07,2.390191997042019e-09,-7.82817126776511e-07,-3.6195615603520356e-07,-9.324535638084758e-07,-4.272738773732631e-06,-3.3649174833156436e-06,1.1443530792313541e-07,7.991670194990917e-09
2024-01,-1.8648013709743106e-07,-2.0987381324505388e-07,-1.3446201724641688e-07,-3.3402462317629386e-08,-2.134146794063856e-07,-2.540969241695692e-07,3.3647669223804005e-07,-1.5001066772544136e-07,-1.4817646424356383e-07,-1.4982628288462572e-08,-8.604328924513775e-08,-1.6803655251734156e-06,2.6770936755547696e-09,-1.4130766184525248e-06,-4.933578851970587e-07,-1.7478675416249694e-06,-8.043723697083764e-06,-6.325630573049825e-06,1.1427578489554649e-07,7.801398992797687e-09
2024-02,7.939831885238143e-07,8.72725221683524e-07,5.811334495953519e-07,2.1209757268652098e-07,5.879732134413889e-07,8.286876904726654e-07,-2.0560947776753875e-07,2.569744189934542e-07,8.204318616022095e-07,1.2335013328860219e-07,2.361759030010759e-07,1.6481955679121892e-07,-2.3804449942009366e-09,1.9161783732914237e-07,2.6404413688570926e-07,1.5732957656726656e-07,6.830412684563027e-07,5.478473268176484e-07,-1.2920402626995984e-07,-9.219457189694885e-09
2024-03,1.6894640934441087e-06,1.8634090829852771e-06,1.2339099322689704e-06,4.2988775269813524e-07,1.3494133535463619e-06,1.8409222167218554e-06,-8.136327042877552e-07,6.63814559025267e-07,1.687642316378208e-06,2.442116576048027e-07,5.424464033878638e-07,2.4933380587284497e-06,-7.829537559904327e-09,2.1932896557006653e-06,1.1248151422056436e-06,2.5677978276580943e-06,1.174240041807892e-05,9.253778599258313e-06,-3.8446720634717983e-07,-2.6973450480021106e-08
2024-04,1.395966592641902e-06,1.5486551625304102e-06,1.0158452812775326e-06,3.2518896170125376e-07,1.252748766092429e-06,1.629875604733776e-06,-1.1993760748639358e-06,7.124751635652698e-07,1.313042687308192e-06,1.7620236600380356e-07,5.041299786241187e-07,5.062762232539732e-06,-1.0343188289061766e-08,4.314458132720846e-06,1.7183318123000427e-06,5.2509647431799385e-06,2.4120971103865232e-05,1.8980376102522415e-05,-4.711840688416816e-07,-3.259585977255425e-08
2024-05,-1.099880782255154e-06,-1.2047015601905107e-06,-8.067879165178794e-07,-3.080753046966519e-07,-7.490451758256281e-07,-1.0962771340612977e-06,3.437692298119708e-08,-2.780634398204246e-07,-1.175205544595873e-06,-1.830296202596011e-07,-3.0059747189733555e-07,1.1983589080745364e-06,1.4569067282886355e-09,9.23479116344025e-07,9.08561925531052e-09,1.2689258887050824e-06,5.904777137923602e-06,4.626544735220741e-06,1.0604307121924504e-07,7.873425168179841e-09
2024-06,-4.173563613233996e-06,-4.59432752863167e-06,-3.051884821421568e-06,-1.0919195113312727e-06,-3.196084633625297e-06,-4.439210380951806e-06,1.484102359148906e-06,-1.4762573495132422e-06,-4.250290846410271e-06,-6.288119778075639e-07,-1.2842437500561833e-06,-3.1638813901859664e-06,1.5476949407483742e-08,-2.921864738731975e-06,-1.9916126345309995e-06,-3.221441948627748e-06,-1.4623140602693753e-05,-1.1552447972234862e-05,7.966203101271405e-07,5.634967824592931e-08
2024-07,-5.750862015881119e-06,-6.342474419616148e-06,-4.200377711830202e-06,-1.4649562277619911e-06,-4.585831165125943e-06,-6.260487240631835e-06,2.7408241692678987e-06,-2.2506527544933677e-06,-5.749101117217593e-06,-8.32681118941885e-07,-1.8434142267589633e-06,-8.323461714228834e-06,2.6440136605062932e-08,-7.3293994645948656e-06,-3.785795959671995e-06,-8.570010838023266e-06,-3.918427308553264e-05,-3.0881322562524256e-05,1.3003377085187141e-06,9.125426114531456e-08
2024-08,-3.545618858880519e-06,-3.921865425573391e-06,-2.5849327819411703e-06,-8.646942159307523e-07,-3.0040448714144623e-06,-3.999337412250988e-06,2.3659464480285823e-06,-1.5979568143052766e-06,-3.4400929994212604e-06,-4.805602654522891e-07,-1.2082628540190168e-06,-8.983289005439958e-06,2.1270480496222978e-08,-7.7285465356486e-06,-3.3460774719422383e-06,-9.29779267042687e-06,-4.265395019275934e-05,-3.3578467852431854e-05,9.986187066373139e-07,6.948465203495047e-08
2024-09,3.0597718436782404e-06,3.3231552548315703e-06,2.256086029847457e-06,9.515589893953208e-07,1.6500006359805526e-06,2.7072727706142886e-06,1.564078210504044e-06,2.5720411341889024e-07,3.5256915728902874e-06,5.897327741735802e-07,6.601580360191174e-07,-1.2788300518549116e-05,8.144975430258292e-09,-1.0447998223730399e-05,-2.5094519095293903e-06,-1.3383498538496867e-05,-6.182784434810405e-05,-4.8559990385603084e-05,1.88365114715236e-07,1.0555833587301797e-08
2024-10,1.58342747921477e-05,1.7350108467576773e-05,1.161199429461436e-05,4.412396382114244e-06,1.0887995798825115e-05,1.5864880155769433e-05,-8.946434665991191e-07,4.127461426884169e-06,1.6856929532166644e-05,2.615556533903314e-06,4.369916352323922e-06,-1.4974870427085836e-05,-2.39120225720296e-08,-1.1397088584975763e-05,4.675133229896327e-07,-1.5894705992865813e-05,-7.407238895760196e-05,-5.800961454527035e-05,-1.6430526980050357e-06,-1.2116637073284047e-07
2024-11,3.418434501429426e-05,3.766407455326211e-05,2.4983217544882056e-05,8.831744329021487e-06,2.669131186719679e-05,3.6765345060593635e-05,-1.4119371567070032e-05,1.2702430471449634e-05,3.450948637901795e-05,5.055092162999629e-06,1.0727148518881859e-05,3.709978318276114e-05,-1.411978708737982e-07,3.3253441826658716e-05,1.925162853241131e-05,3.804315500328141e-05,0.00017348645926216816,0.00013684548975737294,-7.0967241936281615e-06,-4.999437755943251e-07
2024-12,3.4245938730237134e-05,3.796020151785681e-05,2.4933810429628625e-05,8.083075671111723e-06,3.0248253738425107e-05,3.960188099487781e-05,-2.75703139274985e-05,1.6902053315057703e-05,3.2497851565732044e-05,4.412542656361495e-06,1.2170779694532122e-05,0.00011364518718873077,-2.4012228353054986e-07,9.70467109561313e-05,3.938095967225604e-05,0.00011781687708808983,0.0005410524913484834,0.0004257852066019476,-1.1019499101403661e-05,-7.634073481434389e-07
2025-01,-2.0149940555621285e-05,-2.156591783574049e-05,-1.4989073087567965e-05,-7.333328632985938e-06,-5.969741205082728e-06,-1.3962922998999296e-05,-2.9034044945716674e-05,4.134401647224409e-06,-2.611202056485489e-05,-4.792970451050017e-06,-2.3599626211603625e-06,0.00019093451161572827,-1.9132204898234714e-07,0.00015773797528891243,4.456584479321543e-05,0.00019935656491163557,0.0009196277978366711,0.0007226303657070681,-6.696451930788338e-06,-4.358940640659716e-07
2025-02,-0.00015423314238648703,-0.000169736071183873,-0.00011280090145723333,-4.0506770798924736e-05,-0.00011739873037745013,-0.00016348801507743696,5.2120870557248945e-05,-5.370738129490708e-05,-0.00015748932327910468,-2.3369821467912268e-05,-4.716998311426678e-05,-0.00010140432249983812,5.51928817088618e-07,-9.504644007395658e-05,-6.952274500387848e-05,-0.00010287683315355215,-0.00046588536968636835,-0.00036834716779801164,2.8645659864791024e-05,2.02912056285613e-06
2025-03,-0.00023800856180134853,-0.00026294305617348575,-0.00017365329538368817,-5.9123328054134066e-05,-0.00019670428178720294,-0.00026455763874966916,0.00013988137192471825,-0.00010137493755824954,-0.00023385030540833056,-3.317807635747979e-05,-7.909847898489989e-05,-0.0004951411359983242,1.288645275020394e-06,-0.00042889245575195923,-0.0001962672841883318,-0.0005117013460218843,-0.0023451863926826112,-0.0018467931568431446,6.151915143319841e-05,4.293946745312243e-06
2025-04,-8.51473321274725e-05,-9.625819900417174e-05,-6.121815702070535e-05,-1.3813851234859933e-05,-0.00010404413886208491,-0.00012123089736636438,0.00017888293909192448,-7.634966274527611e-05,-6.375794560678907e-05,-5.615660001078852e-06,-4.196601159650991e-05,-0.0009110780290932552,1.4079179914435294e-06,-0.0007650657243466778,-0.00026305669383217087,-0.0009479673159298315,-0.004363409257081128,-0.0034311899780787845,5.953139805022791e-05,4.055891396734971e-06
2025-05,0.0004556579551617541,0.0005009837428033862,0.0003334493854599399,0.00012126275333246117,0.0003395313859904022,0.0004772326333364344,-0.00012603278185629194,0.00014997469169596554,0.000469595267637016,7.039919409423446e-05,0.00013639119088952026,0.00014036430608659913,-1.4251693246200665e-06,0.00014811489521143588,0.00016355958428670598,0.0001379971832521215,0.0006118091423603496,0.0004872006171619869,-7.648904940703961e-05,-5.448098923682611e-06
2025-06,0.0009249707749693107,0.0010205662968506316,0.0006754081472786726,0.00023414907702911056,0.0007443560243429523,0.0010122835084531762,-0.0004667355400727139,0.00037005354520627955,0.0009206867659867687,0.00013267156649599362,0.0002992431797073919,0.0014862904572405212,-4.442994699395495e-06,0.0013018171749060966,0.00064767524158398,0.0015321702746713146,0.0070109152625266015,0.005523907761419715,-0.0002166899144293851,-1.5183903037951235e-05
2025-07,0.0006840876214030884,0.0007604100681417158,0.0004971910800583647,0.00015433969719740807,0.0006369322119117431,0.0008168946423663932,-0.000675858198204121,0.0003765565875910272,0.0006298410686162912,8.2070533646078e-05,0.00025639421995534225,0.0029828993772660723,-5.716188301580703e-06,0.002532551782855153,0.0009739385686733589,0.0030963028992367597,0.014230594026907968,0.011195890986366879,-0.00025656227866476883,-1.769661355531275e-05
2025-08,-0.0008560402331405006,-0.0009383809419695172,-0.0006276115315659351,-0.00023723551837724605,-0.0005946421341037851,-0.0008624398498499067,7.136213412085972e-05,-0.00023029482028604807,-0.000907775415581633,-0.00014028731077422843,-0.00023868811073214768,0.0006785845960388983,1.4617474255070446e-06,0.0005069910789731123,-5.9693464923694865e-05,0.0007227865713534741,0.0033754978489757173,0.0026416641058370238,9.552462143673507e-05,7.000278124909074e-06
2025-09,-0.0027261190636323853,-0.0030005374093766256,-0.0019936260957227024,-0.0007146326169401793,-0.002081196193901641,-0.0028945470072120295,0.0009447335728058258,-0.0009565997814248596,-0.002780046029663513,-0.0004119291752214798,-0.0008362352855650027,-0.0019261122546279147,9.92808599127239e-06,-0.0017914436434453185,-0.0012639813145313486,-0.0019577826174040865,-0.008876986966426345,-0.0070155686951501465,0.0005131594764727875,3.632455685232058e-05
2025-10,-0.0036894393067167315,-0.004067889520169148,-0.002695186546664197,-0.0009435071952012859,-0.0029251710296480373,-0.004003085247894897,0.0016938995272788163,-0.0014238410524909338,-0.0036982672114064348,-0.000537331767540868,-0.0011757950776529517,-0.004972660428561442,1.648877644788954e-05,-0.004396121539271931,-0.0023322739489345192,-0.005115340004702588,-0.02337509220384968,-0.01842558628335982,0.0008154515789985247,5.728303707616739e-05
2025-11,-0.002408116885336672,-0.0026603762716812607,-0.0017569940133783828,-0.0005982708346665947,-0.0019898682893543357,-0.0026764650545181077,0.0014139825749942391,-0.0010252825615829873,-0.0023662462538081566,-0.00033575165523625357,-0.0008001620436399096,-0.005002289066113689,1.3028626766387766e-05,-0.004333239283659694,-0.0019838339637134705,-0.005169527759868249,-0.023692352875978255,-0.01865736223624055,0.0006220566569274813,4.341965071458421e-05
2025-12,0.0016091344882228178,0.0017224836341754577,0.001196885285082908,0.0005847140905768991,0.00048091283478217585,0.0011183525067754282,0.002302603940458494,-0.0003251882319947121,0.002082783311233271,0.00038198065760335184,0.00019015913198856943,0.007856712929925003,-1.3736261161467642e-05,-0.012520699878160972,-0.0035349959935922293,-0.015825246570568358,-0.07300204836344919,0.029039667434944665,0.0005301063632577559,3.449677456764956e-05
2026-01,0.012871230006134807,0.014073119584089676,0.009451587614694097,0.0036881636765038976,0.008384950666860418,0.012528517325763412,0.0010542040517184273,0.0028008832008076827,0.013977691952933271,0.0022125799355848606,0.0033631890580879285,0.0,0.0,-0.017721167161363887,-0.002286336484192505,-0.02349645830105534,-0.10894230860792643,0.0,-0.0008167730738129191,-6.365314559998148e-05
2026-02,0.0345111962245711,0.03787554714368393,0.025283582448654758,0.009414099701552823,0.024661484744600472,0.035312803778987906,-0.005511411997187646,0.010103908457513536,0.0361899566635991,0.005527798951186303,0.00990218027746348,0.0,0.0,-0.007933068194304024,0.0063496596246966535,-0.013498735597511942,-0.06401770161018135,0.0,-0.004618315040896569,-0.00033373771751604383
2026-03,0.06262077544052023,0.0687852892483524,0.045852445083965125,0.016881374261687725,0.04945226290083254,0.06481803176687423,-0.013522299981316495,0.01942925446529194,0.06512288857999611,0.009859280395256223,0.018341192835661272,0.0,0.0,0.002324083217247624,0.016792770338645156,-0.003585087833491124,-0.019821718016747484,0.0,-0.009405638009977603,-0.0006744452041077535
2026-04,0.08346907556352039,0.0925670228880646,0.06075001813841419,0.019211189294589072,0.0,0.0,-0.04936280712358453,0.03875223512527723,0.07819158409376943,0.010134341903146908,0.02939510689497271,0.0,0.0,0.03567149036397408,0.03479333521398729,0.03509324681900784,0.1568548120302447,0.0,-0.01576945294576897,-0.0011217565931740108
2026-05,0.0,0.0,0.0,0.0,0.0,0.0,0.0,0.0,0.0,0.0,0.0,0.0,0.0,0.062043757830415686,0.046627719163184,0.06665193011634019,0.301542335952115,0.0,-0.025086525418102176,-0.0013761031382677367
2026-06,0.0,0.0,0.0,0.0,0.0,0.0,0.0,0.0,0.0,0.0,0.0,0.0,0.0,0.014939060485460613,0.04314202742662967,-0.017211481005887666,-0.1277008704346037,0.0,0.0,-0.001331201647329063
